-28 36 44 45 -32 19 45 -10 17 40 -18 6 32 30 -16 -29 40 48 -39 -20 18 47 30 13 -40 23 -10 47 51 -27 -39 -40 
18 57 71 -46 -54 -54 -48 39 53 18 -29 14 22 -35 -16 45 -52 31 23 -46 -51 51 -31 -64 28 -53 -45 24 8 -14 14 4 
99 -63 80 120 -20 -5 84 3 -37 9 54 -74 46 55 -28 -56 95 -28 -44 91 -19 1 -33 -18 19 -77 -39 -118 26 34 -76 -23 
127 -101 48 108 -8 83 3 -28 31 -41 61 -85 -38 -61 66 -5 32 18 42 -84 12 74 -59 64 1 -32 -46 -63 41 -51 46 88 
40 17 15 1 14 -22 44 -20 -24 42 -37 -36 -23 -27 -28 19 -52 23 29 -19 -43 49 -49 -37 19 -44 -29 -44 30 -59 54 -10 
-68 77 -66 94 -3 65 -21 -40 -60 71 22 -62 54 -58 -35 -51 34 -89 -27 91 72 9 33 -55 41 35 -9 46 -41 43 87 -61 
-58 -9 -70 -41 -34 -57 -58 23 -9 36 44 43 49 18 -53 24 -8 -49 -14 22 -8 -4 67 -70 50 -59 35 53 -40 1 -17 -57 
-10 -59 55 -70 -31 27 -16 -59 -19 27 16 -94 54 -6 34 79 -80 -29 -22 56 2 60 43 -32 21 69 92 -79 31 16 -40 -15 
-23 60 -57 34 37 56 57 -85 -43 -40 25 -5 78 -6 59 -29 -30 -31 -41 93 -80 -14 17 -38 52 51 41 -85 33 -13 -15 68 
24 -4 26 -11 8 7 -3 34 -32 -60 48 -13 54 -28 21 40 23 34 39 -8 -50 -21 -55 -3 45 -44 49 -22 -4 -21 30 -44 
-43 -54 59 -54 -52 63 10 -46 7 50 -37 -14 42 -56 -1 54 -34 -1 -44 47 -63 31 -9 -34 41 38 52 -44 -51 30 -28 59 
30 -50 72 36 -18 55 -64 12 -17 -46 70 19 -16 52 -12 22 -60 37 31 -53 -18 -29 -7 -10 33 -29 47 51 -7 -20 23 56 
38 -14 87 83 20 -23 87 19 -25 47 1 -35 1 -27 -69 26 109 39 9 -66 -66 -24 5 -30 -21 29 30 -45 -31 15 -48 -41 
-33 -44 6 29 25 -35 9 -34 7 6 -46 -50 -15 -19 49 27 56 42 51 5 20 53 8 55 -23 -40 -29 20 -54 12 48 -16 
-5 18 -48 -7 -35 50 -44 39 -35 -14 2 2 24 4 -11 -8 15 34 24 8 -56 -16 -49 28 -10 31 41 19 13 5 -1 32 
-71 6 19 64 45 71 47 -55 -74 38 77 -16 34 -15 31 35 -40 -37 -8 35 -76 15 -72 65 25 -18 25 -64 69 -30 -45 68 
-52 5 -43 11 42 38 -42 -26 -15 -8 -5 24 -17 4 -29 -52 -35 18 46 25 35 -38 38 -30 -6 -32 27 22 32 43 9 -42 
-53 34 16 67 -5 -30 -73 -49 21 -69 35 9 20 -80 54 27 -60 29 66 5 -67 29 72 0 58 -66 -64 -67 21 -10 -44 53 
31 -1 -19 27 2 44 20 36 -33 -44 -38 48 -35 46 -5 -10 -13 5 -6 -12 -8 45 7 7 47 -25 1 -20 40 34 1 -40 
67 49 -20 43 54 -66 1 -74 -13 -33 66 7 21 14 -58 -72 61 -35 -22 15 -33 15 8 25 31 57 44 -16 53 35 43 38 
-40 26 17 -48 -21 41 -53 31 8 -7 -36 -32 -29 -54 -33 49 44 -56 -16 20 41 7 -21 56 -43 7 34 -50 -23 32 62 -54 
15 -48 15 21 45 -28 14 -15 58 30 -28 7 57 -32 31 6 17 35 53 -27 -43 17 52 -26 -47 34 -31 -8 42 21 55 52 
-31 36 27 9 18 38 -19 36 35 -25 11 9 -24 28 24 -32 -29 -43 -26 23 27 -29 -2 -19 4 15 30 -10 17 10 -19 7 
38 -45 14 -26 52 27 -15 47 -35 40 18 1 30 38 -4 -20 -13 -46 16 -42 -24 53 -41 19 -46 37 53 -6 14 -47 -46 35 
-30 41 12 -83 36 -66 -35 -19 -38 -20 59 -16 19 53 32 60 20 11 50 17 -69 -14 -17 24 26 9 0 1 -19 -22 11 62 
-49 -55 -29 37 9 -40 74 37 -15 -31 -95 -11 55 19 -51 -104 -94 -55 -23 62 -42 76 65 11 39 56 84 78 -15 86 40 -4 
-14 -24 -32 53 43 3 -57 -53 -20 69 41 -15 34 76 -23 -74 55 -12 29 58 42 32 -71 -42 38 -50 18 -10 -6 59 -74 5 
-7 -31 -12 26 24 38 -87 69 -69 -19 51 -3 18 12 -20 15 20 58 60 11 -52 -53 47 -4 -31 -20 63 -42 -33 -15 24 -5 
27 -35 -82 73 8 85 81 -56 -44 -25 -15 39 -78 -1 96 14 16 -99 16 -17 -10 53 -3 29 -28 -40 -12 92 60 -77 90 37 
-66 21 38 1 40 -52 -13 -46 86 -55 17 39 -23 -16 -12 55 57 15 -24 -33 12 45 42 10 -10 65 9 45 -34 -62 2 49 
-39 -39 57 38 -36 -24 -80 51 32 41 23 45 23 21 -56 27 52 13 35 -32 -26 -3 -63 25 32 -82 42 3 -25 -45 69 -4 
4 -39 3 -9 13 54 19 12 45 29 22 42 -18 -39 -50 11 -20 -23 -58 -19 56 18 42 55 -47 -2 33 15 9 -50 3 5 
