10 -27 47 15 -4 -37 38 -19 14 13 -1 -30 -36 -56 -20 -31 -71 -43 24 64 59 88 111 84 100 46 86 34 81 87 66 76 74 -24 19 -10 61 -11 -4 47 40 48 69 37 69 61 41 35 64 -1 75 89 52 29 68 -17 -29 17 1 -54 -42 3 -11 -36 13 9 -10 9 71 36 77 69 93 45 67 104 53 83 76 61 12 -28 -51 -72 -30 -87 -72 -22 -57 -77 31 -28 4 7 3 -9 18 27 50 -31 -58 -49 -31 -21 -44 -81 -15 -38 35 8 49 52 1 59 74 38 50 -27 -33 48 29 -22 56 -21 -8 -50 -62 -35 -38 -70 -67 -72 -35 -38 6 -12 56 -5 54 37 81 76 44 68 15 -12 -30 34 -45 -28 11 16 34 -1 35 18 16 14 -27 -34 -78 -56 -41 -15 2 24 -2 -60 -48 2 -38 34 19 41 3 12 22 44 43 -27 -106 -11 -52 -81 -65 -48 -3 -15 -19 50 8 60 6 -25 -24 -1 -91 -71 -3 -53 -47 -9 -80 -49 -3 -27 -3 -79 -54 -28 -64 -77 -4 -71 -2 4 -27 -64 -75 -59 -8 -28 -51 -27 -21 44 16 60 27 66 41 94 61 84 6 10 22 8 -18 -15 16 -22 21 -29 -72 -22 -38 -94 -96 -40 -80 -73 31 52 100 114 54 97 14 17 46 -52 8 -44 -102 -12 -79 -17 -43 -33 -55 -5 -26 -64 -122 -94 -78 -30 -64 -29 -1 -13 -40 -35 -96 -17 -58 -23 
19 -7 -50 -23 4 0 -2 0 -43 4 28 28 17 39 76 75 35 45 -52 -87 -115 -46 -56 -86 -99 -91 -40 -40 -84 -72 -99 -125 -37 -33 -18 20 -8 21 1 -72 -83 -56 7 -45 -55 -18 -73 -55 -70 10 -86 -100 -85 -36 -34 -47 1 -14 75 8 4 43 15 13 -44 -26 35 -1 -61 -71 -92 -76 -11 -35 -72 -73 -48 -108 -36 -75 -41 45 26 15 20 71 61 50 45 54 -1 -48 33 -9 26 -49 -39 -41 -27 70 22 47 54 44 48 9 28 67 18 -17 -33 -65 -5 -31 -38 -66 -46 36 35 -50 15 17 -66 6 -13 64 27 45 67 35 78 11 57 46 -11 -13 -61 -5 14 -67 -56 -26 -6 -72 -16 -2 -40 8 10 47 -27 25 -22 -38 9 2 -41 0 11 11 48 103 7 5 59 37 30 10 -4 55 -35 -14 -52 -19 31 -37 -6 -66 -1 -39 90 74 75 81 99 83 41 8 47 -32 -20 -29 -4 -16 -2 -5 80 107 42 30 -21 38 80 63 -6 64 51 40 41 33 10 52 55 44 -9 -43 -16 87 16 58 69 32 49 47 55 -61 -37 -39 -59 -83 -62 -43 -85 -53 26 -4 -5 29 5 29 -25 -8 -15 72 60 56 56 97 40 74 62 53 -56 -102 -101 -60 -113 -31 -60 -23 -1 27 -9 4 119 38 76 42 72 12 28 -9 89 68 59 107 22 68 63 12 58 61 6 73 22 17 74 20 
